digraph Tree {
node [shape=box, style="rounded", color="black", fontname=helvetica] ;
graph [ranksep=equally, splines=polyline] ;
edge [fontname=helvetica] ;
0 [label="last_evaluation <= 2.5\ngini = 0.505\nsamples = 100.0%\nvalue = [0.644, 0.271, 0.085]"] ;
1 [label="last_evaluation <= 1.5\ngini = 0.149\nsamples = 60.2%\nvalue = [0.919, 0.077, 0.004]"] ;
0 -> 1 [labeldistance=2.5, labelangle=45, headlabel="True"] ;
2 [label="gini = 0.012\nsamples = 18.6%\nvalue = [0.994, 0.006, 0.0]"] ;
1 -> 2 ;
3 [label="gini = 0.203\nsamples = 41.7%\nvalue = [0.886, 0.109, 0.005]"] ;
1 -> 3 ;
4 [label="last_evaluation <= 5.5\ngini = 0.585\nsamples = 39.8%\nvalue = [0.226, 0.566, 0.208]"] ;
0 -> 4 [labeldistance=2.5, labelangle=-45, headlabel="False"] ;
5 [label="gini = 0.537\nsamples = 36.3%\nvalue = [0.248, 0.62, 0.132]"] ;
4 -> 5 ;
6 [label="gini = 0.0\nsamples = 3.5%\nvalue = [0.0, 0.0, 1.0]"] ;
4 -> 6 ;
{rank=same ; 0} ;
{rank=same ; 1; 4} ;
{rank=same ; 2; 3; 5; 6} ;
}