digraph Tree {
node [shape=box, style="rounded", color="black", fontname=helvetica] ;
graph [ranksep=equally, splines=polyline] ;
edge [fontname=helvetica] ;
0 [label="satisfaction_level <= 0.5\nentropy = 0.794\nsamples = 100.0%\nvalue = [0.761, 0.239]"] ;
1 [label="time_spend_company <= 1.5\nentropy = 0.997\nsamples = 36.8%\nvalue = [0.533, 0.467]"] ;
0 -> 1 [labeldistance=2.5, labelangle=45, headlabel="True"] ;
2 [label="salary <= 0.5\nentropy = 1.0\nsamples = 33.9%\nvalue = [0.496, 0.504]"] ;
1 -> 2 ;
3 [label="entropy = 0.768\nsamples = 2.0%\nvalue = [0.776, 0.224]"] ;
2 -> 3 ;
4 [label="entropy = 0.999\nsamples = 31.9%\nvalue = [0.478, 0.522]"] ;
2 -> 4 ;
5 [label="salary <= 0.5\nentropy = 0.202\nsamples = 2.9%\nvalue = [0.968, 0.032]"] ;
1 -> 5 ;
6 [label="entropy = 0.0\nsamples = 0.5%\nvalue = [1.0, 0.0]"] ;
5 -> 6 ;
7 [label="entropy = 0.235\nsamples = 2.4%\nvalue = [0.962, 0.038]"] ;
5 -> 7 ;
8 [label="last_evaluation <= 3.5\nentropy = 0.489\nsamples = 63.2%\nvalue = [0.893, 0.107]"] ;
0 -> 8 [labeldistance=2.5, labelangle=-45, headlabel="False"] ;
9 [label="time_spend_company <= 0.5\nentropy = 0.107\nsamples = 50.8%\nvalue = [0.986, 0.014]"] ;
8 -> 9 ;
10 [label="entropy = 0.075\nsamples = 43.0%\nvalue = [0.991, 0.009]"] ;
9 -> 10 ;
11 [label="entropy = 0.25\nsamples = 7.8%\nvalue = [0.958, 0.042]"] ;
9 -> 11 ;
12 [label="time_spend_company <= 1.5\nentropy = 0.999\nsamples = 12.4%\nvalue = [0.516, 0.484]"] ;
8 -> 12 ;
13 [label="entropy = 0.957\nsamples = 7.6%\nvalue = [0.378, 0.622]"] ;
12 -> 13 ;
14 [label="entropy = 0.838\nsamples = 4.9%\nvalue = [0.732, 0.268]"] ;
12 -> 14 ;
{rank=same ; 0} ;
{rank=same ; 1; 8} ;
{rank=same ; 2; 5; 9; 12} ;
{rank=same ; 3; 4; 6; 7; 10; 11; 13; 14} ;
}