digraph Tree {
node [shape=box, style="rounded", color="black", fontname=helvetica] ;
graph [ranksep=equally, splines=polyline] ;
edge [fontname=helvetica] ;
0 [label="left <= 0.5\nentropy = 1.507\nsamples = 100.0%\nvalue = [0.368, 0.441, 0.191]"] ;
1 [label="time_spend_company <= 0.5\nentropy = 1.479\nsamples = 76.1%\nvalue = [0.258, 0.519, 0.224]"] ;
0 -> 1 [labeldistance=2.5, labelangle=45, headlabel="True"] ;
2 [label="last_evaluation <= 1.5\nentropy = 1.427\nsamples = 53.4%\nvalue = [0.204, 0.561, 0.236]"] ;
1 -> 2 ;
3 [label="salary <= 0.5\nentropy = 1.482\nsamples = 14.6%\nvalue = [0.266, 0.514, 0.22]"] ;
2 -> 3 ;
4 [label="entropy = 1.409\nsamples = 1.5%\nvalue = [0.282, 0.557, 0.161]"] ;
3 -> 4 ;
5 [label="salary <= 1.5\nentropy = 1.488\nsamples = 13.2%\nvalue = [0.264, 0.51, 0.226]"] ;
3 -> 5 ;
6 [label="entropy = 1.499\nsamples = 6.8%\nvalue = [0.271, 0.499, 0.23]"] ;
5 -> 6 ;
7 [label="entropy = 1.476\nsamples = 6.4%\nvalue = [0.257, 0.521, 0.222]"] ;
5 -> 7 ;
8 [label="last_evaluation <= 2.5\nentropy = 1.397\nsamples = 38.8%\nvalue = [0.18, 0.578, 0.242]"] ;
2 -> 8 ;
9 [label="salary <= 1.5\nentropy = 1.403\nsamples = 30.0%\nvalue = [0.187, 0.576, 0.238]"] ;
8 -> 9 ;
10 [label="entropy = 1.414\nsamples = 16.7%\nvalue = [0.192, 0.569, 0.239]"] ;
9 -> 10 ;
11 [label="entropy = 1.389\nsamples = 13.3%\nvalue = [0.179, 0.585, 0.236]"] ;
9 -> 11 ;
12 [label="salary <= 0.5\nentropy = 1.374\nsamples = 8.8%\nvalue = [0.158, 0.587, 0.255]"] ;
8 -> 12 ;
13 [label="entropy = 1.287\nsamples = 0.8%\nvalue = [0.106, 0.617, 0.277]"] ;
12 -> 13 ;
14 [label="entropy = 1.381\nsamples = 8.0%\nvalue = [0.163, 0.584, 0.253]"] ;
12 -> 14 ;
15 [label="last_evaluation <= 6.5\nentropy = 1.516\nsamples = 22.6%\nvalue = [0.386, 0.419, 0.195]"] ;
1 -> 15 ;
16 [label="last_evaluation <= 3.5\nentropy = 1.515\nsamples = 21.3%\nvalue = [0.394, 0.413, 0.193]"] ;
15 -> 16 ;
17 [label="last_evaluation <= 2.5\nentropy = 1.515\nsamples = 11.8%\nvalue = [0.364, 0.438, 0.198]"] ;
16 -> 17 ;
18 [label="entropy = 1.488\nsamples = 4.5%\nvalue = [0.386, 0.442, 0.173]"] ;
17 -> 18 ;
19 [label="entropy = 1.528\nsamples = 7.3%\nvalue = [0.351, 0.436, 0.213]"] ;
17 -> 19 ;
20 [label="promotion_last_5years <= 0.5\nentropy = 1.507\nsamples = 9.5%\nvalue = [0.43, 0.382, 0.188]"] ;
16 -> 20 ;
21 [label="entropy = 1.504\nsamples = 9.1%\nvalue = [0.439, 0.374, 0.187]"] ;
20 -> 21 ;
22 [label="entropy = 1.459\nsamples = 0.5%\nvalue = [0.25, 0.536, 0.214]"] ;
20 -> 22 ;
23 [label="last_evaluation <= 7.5\nentropy = 1.487\nsamples = 1.4%\nvalue = [0.27, 0.509, 0.221]"] ;
15 -> 23 ;
24 [label="entropy = 1.516\nsamples = 0.7%\nvalue = [0.247, 0.482, 0.271]"] ;
23 -> 24 ;
25 [label="entropy = 1.431\nsamples = 0.7%\nvalue = [0.295, 0.538, 0.167]"] ;
23 -> 25 ;
26 [label="last_evaluation <= 4.5\nentropy = 1.107\nsamples = 23.9%\nvalue = [0.718, 0.196, 0.085]"] ;
0 -> 26 [labeldistance=2.5, labelangle=-45, headlabel="False"] ;
27 [label="last_evaluation <= 3.5\nentropy = 0.686\nsamples = 19.6%\nvalue = [0.863, 0.104, 0.033]"] ;
26 -> 27 ;
28 [label="time_spend_company <= 0.5\nentropy = 0.306\nsamples = 14.6%\nvalue = [0.951, 0.044, 0.005]"] ;
27 -> 28 ;
29 [label="last_evaluation <= 1.5\nentropy = 0.24\nsamples = 10.9%\nvalue = [0.964, 0.032, 0.004]"] ;
28 -> 29 ;
30 [label="entropy = 0.169\nsamples = 3.9%\nvalue = [0.978, 0.015, 0.006]"] ;
29 -> 30 ;
31 [label="entropy = 0.272\nsamples = 7.1%\nvalue = [0.956, 0.041, 0.002]"] ;
29 -> 31 ;
32 [label="salary <= 1.5\nentropy = 0.47\nsamples = 3.7%\nvalue = [0.913, 0.078, 0.009]"] ;
28 -> 32 ;
33 [label="entropy = 0.472\nsamples = 2.4%\nvalue = [0.913, 0.076, 0.01]"] ;
32 -> 33 ;
34 [label="entropy = 0.465\nsamples = 1.3%\nvalue = [0.911, 0.082, 0.006]"] ;
32 -> 34 ;
35 [label="salary <= 1.5\nentropy = 1.315\nsamples = 5.0%\nvalue = [0.603, 0.281, 0.116]"] ;
27 -> 35 ;
36 [label="entropy = 1.354\nsamples = 3.1%\nvalue = [0.585, 0.282, 0.133]"] ;
35 -> 36 ;
37 [label="entropy = 1.241\nsamples = 1.9%\nvalue = [0.632, 0.281, 0.088]"] ;
35 -> 37 ;
38 [label="last_evaluation <= 5.5\nentropy = 1.201\nsamples = 4.3%\nvalue = [0.06, 0.616, 0.324]"] ;
26 -> 38 ;
39 [label="time_spend_company <= 1.5\nentropy = 1.211\nsamples = 3.6%\nvalue = [0.065, 0.619, 0.316]"] ;
38 -> 39 ;
40 [label="salary <= 1.5\nentropy = 1.224\nsamples = 3.0%\nvalue = [0.067, 0.608, 0.325]"] ;
39 -> 40 ;
41 [label="entropy = 1.201\nsamples = 1.8%\nvalue = [0.066, 0.63, 0.303]"] ;
40 -> 41 ;
42 [label="entropy = 1.25\nsamples = 1.2%\nvalue = [0.067, 0.577, 0.356]"] ;
40 -> 42 ;
43 [label="entropy = 1.132\nsamples = 0.6%\nvalue = [0.057, 0.671, 0.271]"] ;
39 -> 43 ;
44 [label="entropy = 1.138\nsamples = 0.7%\nvalue = [0.035, 0.605, 0.36]"] ;
38 -> 44 ;
{rank=same ; 0} ;
{rank=same ; 1; 26} ;
{rank=same ; 2; 15; 27; 38} ;
{rank=same ; 3; 8; 16; 23; 28; 35; 39} ;
{rank=same ; 5; 9; 12; 17; 20; 29; 32; 40} ;
{rank=same ; 4; 6; 7; 10; 11; 13; 14; 18; 19; 21; 22; 24; 25; 30; 31; 33; 34; 36; 37; 41; 42; 43; 44} ;
}