digraph Tree {
node [shape=box, style="rounded", color="black", fontname=helvetica] ;
graph [ranksep=equally, splines=polyline] ;
edge [fontname=helvetica] ;
0 [label="time_spend_company <= 0.5\nentropy = 2.251\nsamples = 100.0%\nvalue = [0.186, 0.417, 0.196, 0.108, 0.059, 0.021, 0.007, 0.003\n0.002, 0.001]"] ;
1 [label="left <= 0.5\nentropy = 1.373\nsamples = 64.4%\nvalue = [0.287, 0.573, 0.14, 0.0, 0.0, 0.0, 0.0, 0.0, 0.0, 0.0]"] ;
0 -> 1 [labeldistance=2.5, labelangle=45, headlabel="True"] ;
2 [label="entropy = 1.408\nsamples = 53.4%\nvalue = [0.273, 0.562, 0.165, 0.0, 0.0, 0.0, 0.0, 0.0, 0.0\n0.0]"] ;
1 -> 2 ;
3 [label="entropy = 1.038\nsamples = 10.9%\nvalue = [0.354, 0.632, 0.014, 0.0, 0.0, 0.0, 0.0, 0.0, 0.0\n0.0]"] ;
1 -> 3 ;
4 [label="time_spend_company <= 1.5\nentropy = 2.371\nsamples = 35.6%\nvalue = [0.003, 0.133, 0.298, 0.302, 0.166, 0.059, 0.02, 0.009\n0.006, 0.003]"] ;
0 -> 4 [labeldistance=2.5, labelangle=-45, headlabel="False"] ;
5 [label="entropy = 1.915\nsamples = 27.1%\nvalue = [0.004, 0.167, 0.352, 0.34, 0.137, 0.0, 0.0, 0.0, 0.0\n0.0]"] ;
4 -> 5 ;
6 [label="entropy = 2.657\nsamples = 8.5%\nvalue = [0.0, 0.026, 0.125, 0.184, 0.257, 0.249, 0.083, 0.038\n0.025, 0.014]"] ;
4 -> 6 ;
{rank=same ; 0} ;
{rank=same ; 1; 4} ;
{rank=same ; 2; 3; 5; 6} ;
}