digraph Tree {
node [shape=box, style="rounded", color="black", fontname=helvetica] ;
graph [ranksep=equally, splines=polyline] ;
edge [fontname=helvetica] ;
0 [label="time_spend_company <= 1.5\nentropy = 0.147\nsamples = 100.0%\nvalue = [0.979, 0.021]"] ;
1 [label="left <= 0.5\nentropy = 0.125\nsamples = 91.5%\nvalue = [0.983, 0.017]"] ;
0 -> 1 [labeldistance=2.5, labelangle=45, headlabel="True"] ;
2 [label="salary <= 1.5\nentropy = 0.146\nsamples = 69.0%\nvalue = [0.979, 0.021]"] ;
1 -> 2 ;
3 [label="entropy = 0.1\nsamples = 38.4%\nvalue = [0.987, 0.013]"] ;
2 -> 3 ;
4 [label="entropy = 0.197\nsamples = 30.6%\nvalue = [0.969, 0.031]"] ;
2 -> 4 ;
5 [label="last_evaluation <= 3.5\nentropy = 0.052\nsamples = 22.5%\nvalue = [0.994, 0.006]"] ;
1 -> 5 ;
6 [label="entropy = 0.071\nsamples = 14.6%\nvalue = [0.991, 0.009]"] ;
5 -> 6 ;
7 [label="entropy = 0.012\nsamples = 7.9%\nvalue = [0.999, 0.001]"] ;
5 -> 7 ;
8 [label="salary <= 0.5\nentropy = 0.338\nsamples = 8.5%\nvalue = [0.937, 0.063]"] ;
0 -> 8 [labeldistance=2.5, labelangle=-45, headlabel="False"] ;
9 [label="satisfaction_level <= 0.5\nentropy = 0.751\nsamples = 1.2%\nvalue = [0.785, 0.215]"] ;
8 -> 9 ;
10 [label="entropy = 0.702\nsamples = 0.5%\nvalue = [0.81, 0.19]"] ;
9 -> 10 ;
11 [label="entropy = 0.786\nsamples = 0.7%\nvalue = [0.765, 0.235]"] ;
9 -> 11 ;
12 [label="left <= 0.5\nentropy = 0.232\nsamples = 7.3%\nvalue = [0.962, 0.038]"] ;
8 -> 12 ;
13 [label="entropy = 0.272\nsamples = 5.9%\nvalue = [0.953, 0.047]"] ;
12 -> 13 ;
14 [label="entropy = 0.0\nsamples = 1.4%\nvalue = [1.0, 0.0]"] ;
12 -> 14 ;
{rank=same ; 0} ;
{rank=same ; 1; 8} ;
{rank=same ; 2; 5; 9; 12} ;
{rank=same ; 3; 4; 6; 7; 10; 11; 13; 14} ;
}