digraph Tree {
node [shape=box, style="rounded", color="black", fontname=helvetica] ;
graph [ranksep=equally, splines=polyline] ;
edge [fontname=helvetica] ;
0 [label="time_spend_company <= 1.5\ngini = 0.041\nsamples = 100.0%\nvalue = [0.979, 0.021]"] ;
1 [label="salary <= 1.5\ngini = 0.034\nsamples = 91.5%\nvalue = [0.983, 0.017]"] ;
0 -> 1 [labeldistance=2.5, labelangle=45, headlabel="True"] ;
2 [label="salary <= 0.5\ngini = 0.023\nsamples = 52.6%\nvalue = [0.989, 0.011]"] ;
1 -> 2 ;
3 [label="left <= 0.5\ngini = 0.063\nsamples = 7.0%\nvalue = [0.968, 0.032]"] ;
2 -> 3 ;
4 [label="gini = 0.068\nsamples = 6.4%\nvalue = [0.965, 0.035]"] ;
3 -> 4 ;
5 [label="gini = 0.0\nsamples = 0.6%\nvalue = [1.0, 0.0]"] ;
3 -> 5 ;
6 [label="last_evaluation <= 3.5\ngini = 0.016\nsamples = 45.7%\nvalue = [0.992, 0.008]"] ;
2 -> 6 ;
7 [label="gini = 0.019\nsamples = 38.5%\nvalue = [0.99, 0.01]"] ;
6 -> 7 ;
8 [label="gini = 0.002\nsamples = 7.1%\nvalue = [0.999, 0.001]"] ;
6 -> 8 ;
9 [label="left <= 0.5\ngini = 0.048\nsamples = 38.9%\nvalue = [0.975, 0.025]"] ;
1 -> 9 ;
10 [label="last_evaluation <= 2.5\ngini = 0.059\nsamples = 30.6%\nvalue = [0.969, 0.031]"] ;
9 -> 10 ;
11 [label="gini = 0.054\nsamples = 21.7%\nvalue = [0.972, 0.028]"] ;
10 -> 11 ;
12 [label="gini = 0.072\nsamples = 8.9%\nvalue = [0.963, 0.037]"] ;
10 -> 12 ;
13 [label="satisfaction_level <= 1.5\ngini = 0.008\nsamples = 8.3%\nvalue = [0.996, 0.004]"] ;
9 -> 13 ;
14 [label="gini = 0.007\nsamples = 7.6%\nvalue = [0.997, 0.003]"] ;
13 -> 14 ;
15 [label="gini = 0.025\nsamples = 0.7%\nvalue = [0.987, 0.013]"] ;
13 -> 15 ;
16 [label="salary <= 0.5\ngini = 0.118\nsamples = 8.5%\nvalue = [0.937, 0.063]"] ;
0 -> 16 [labeldistance=2.5, labelangle=-45, headlabel="False"] ;
17 [label="satisfaction_level <= 0.5\ngini = 0.338\nsamples = 1.2%\nvalue = [0.785, 0.215]"] ;
16 -> 17 ;
18 [label="gini = 0.308\nsamples = 0.5%\nvalue = [0.81, 0.19]"] ;
17 -> 18 ;
19 [label="gini = 0.359\nsamples = 0.7%\nvalue = [0.765, 0.235]"] ;
17 -> 19 ;
20 [label="left <= 0.5\ngini = 0.073\nsamples = 7.3%\nvalue = [0.962, 0.038]"] ;
16 -> 20 ;
21 [label="salary <= 1.5\ngini = 0.089\nsamples = 5.9%\nvalue = [0.953, 0.047]"] ;
20 -> 21 ;
22 [label="gini = 0.056\nsamples = 2.3%\nvalue = [0.971, 0.029]"] ;
21 -> 22 ;
23 [label="gini = 0.109\nsamples = 3.6%\nvalue = [0.942, 0.058]"] ;
21 -> 23 ;
24 [label="gini = 0.0\nsamples = 1.4%\nvalue = [1.0, 0.0]"] ;
20 -> 24 ;
{rank=same ; 0} ;
{rank=same ; 1; 16} ;
{rank=same ; 2; 9; 17; 20} ;
{rank=same ; 3; 6; 10; 13; 21} ;
{rank=same ; 4; 5; 7; 8; 11; 12; 14; 15; 18; 19; 22; 23; 24} ;
}