digraph Tree {
node [shape=box, style="rounded", color="black", fontname=helvetica] ;
graph [ranksep=equally, splines=polyline] ;
edge [fontname=helvetica] ;
0 [label="time_spend_company <= 0.5\ngini = 0.738\nsamples = 100.0%\nvalue = [0.186, 0.417, 0.196, 0.108, 0.059, 0.021, 0.007, 0.003\n0.002, 0.001]"] ;
1 [label="satisfaction_level <= 0.5\ngini = 0.569\nsamples = 64.4%\nvalue = [0.287, 0.573, 0.14, 0.0, 0.0, 0.0, 0.0, 0.0, 0.0, 0.0]"] ;
0 -> 1 [labeldistance=2.5, labelangle=45, headlabel="True"] ;
2 [label="left <= 0.5\ngini = 0.539\nsamples = 21.4%\nvalue = [0.358, 0.572, 0.07, 0.0, 0.0, 0.0, 0.0, 0.0, 0.0, 0.0]"] ;
1 -> 2 ;
3 [label="salary <= 0.5\ngini = 0.591\nsamples = 10.9%\nvalue = [0.357, 0.515, 0.128, 0.0, 0.0, 0.0, 0.0, 0.0, 0.0\n0.0]"] ;
2 -> 3 ;
4 [label="gini = 0.56\nsamples = 1.1%\nvalue = [0.389, 0.532, 0.079, 0.0, 0.0, 0.0, 0.0, 0.0, 0.0\n0.0]"] ;
3 -> 4 ;
5 [label="salary <= 1.5\ngini = 0.594\nsamples = 9.8%\nvalue = [0.354, 0.513, 0.133, 0.0, 0.0, 0.0, 0.0, 0.0, 0.0\n0.0]"] ;
3 -> 5 ;
6 [label="gini = 0.588\nsamples = 5.1%\nvalue = [0.359, 0.518, 0.123, 0.0, 0.0, 0.0, 0.0, 0.0, 0.0\n0.0]"] ;
5 -> 6 ;
7 [label="gini = 0.6\nsamples = 4.7%\nvalue = [0.348, 0.508, 0.144, 0.0, 0.0, 0.0, 0.0, 0.0, 0.0\n0.0]"] ;
5 -> 7 ;
8 [label="salary <= 1.5\ngini = 0.472\nsamples = 10.5%\nvalue = [0.359, 0.631, 0.009, 0.0, 0.0, 0.0, 0.0, 0.0, 0.0\n0.0]"] ;
2 -> 8 ;
9 [label="gini = 0.467\nsamples = 6.8%\nvalue = [0.349, 0.641, 0.01, 0.0, 0.0, 0.0, 0.0, 0.0, 0.0, 0.0]"] ;
8 -> 9 ;
10 [label="gini = 0.481\nsamples = 3.7%\nvalue = [0.378, 0.613, 0.009, 0.0, 0.0, 0.0, 0.0, 0.0, 0.0\n0.0]"] ;
8 -> 10 ;
11 [label="promotion_last_5years <= 0.5\ngini = 0.577\nsamples = 43.0%\nvalue = [0.251, 0.574, 0.174, 0.0, 0.0, 0.0, 0.0, 0.0, 0.0\n0.0]"] ;
1 -> 11 ;
12 [label="satisfaction_level <= 1.5\ngini = 0.577\nsamples = 42.1%\nvalue = [0.253, 0.574, 0.173, 0.0, 0.0, 0.0, 0.0, 0.0, 0.0\n0.0]"] ;
11 -> 12 ;
13 [label="salary <= 0.5\ngini = 0.574\nsamples = 29.7%\nvalue = [0.251, 0.577, 0.172, 0.0, 0.0, 0.0, 0.0, 0.0, 0.0\n0.0]"] ;
12 -> 13 ;
14 [label="gini = 0.593\nsamples = 2.7%\nvalue = [0.286, 0.544, 0.17, 0.0, 0.0, 0.0, 0.0, 0.0, 0.0, 0.0]"] ;
13 -> 14 ;
15 [label="gini = 0.572\nsamples = 26.9%\nvalue = [0.247, 0.581, 0.172, 0.0, 0.0, 0.0, 0.0, 0.0, 0.0\n0.0]"] ;
13 -> 15 ;
16 [label="salary <= 0.5\ngini = 0.584\nsamples = 12.4%\nvalue = [0.259, 0.564, 0.177, 0.0, 0.0, 0.0, 0.0, 0.0, 0.0\n0.0]"] ;
12 -> 16 ;
17 [label="gini = 0.567\nsamples = 1.1%\nvalue = [0.212, 0.591, 0.197, 0.0, 0.0, 0.0, 0.0, 0.0, 0.0\n0.0]"] ;
16 -> 17 ;
18 [label="gini = 0.585\nsamples = 11.3%\nvalue = [0.263, 0.561, 0.175, 0.0, 0.0, 0.0, 0.0, 0.0, 0.0\n0.0]"] ;
16 -> 18 ;
19 [label="gini = 0.556\nsamples = 0.9%\nvalue = [0.167, 0.602, 0.231, 0.0, 0.0, 0.0, 0.0, 0.0, 0.0\n0.0]"] ;
11 -> 19 ;
20 [label="time_spend_company <= 1.5\ngini = 0.77\nsamples = 35.6%\nvalue = [0.003, 0.133, 0.298, 0.302, 0.166, 0.059, 0.02, 0.009\n0.006, 0.003]"] ;
0 -> 20 [labeldistance=2.5, labelangle=-45, headlabel="False"] ;
21 [label="left <= 0.5\ngini = 0.714\nsamples = 27.1%\nvalue = [0.004, 0.167, 0.352, 0.34, 0.137, 0.0, 0.0, 0.0, 0.0\n0.0]"] ;
20 -> 21 ;
22 [label="salary <= 0.5\ngini = 0.688\nsamples = 15.5%\nvalue = [0.007, 0.268, 0.402, 0.277, 0.047, 0.0, 0.0, 0.0, 0.0\n0.0]"] ;
21 -> 22 ;
23 [label="satisfaction_level <= 0.5\ngini = 0.632\nsamples = 1.4%\nvalue = [0.006, 0.247, 0.518, 0.193, 0.036, 0.0, 0.0, 0.0, 0.0\n0.0]"] ;
22 -> 23 ;
24 [label="gini = 0.684\nsamples = 0.5%\nvalue = [0.0, 0.246, 0.443, 0.23, 0.082, 0.0, 0.0, 0.0, 0.0\n0.0]"] ;
23 -> 24 ;
25 [label="gini = 0.593\nsamples = 0.9%\nvalue = [0.01, 0.248, 0.562, 0.171, 0.01, 0.0, 0.0, 0.0, 0.0\n0.0]"] ;
23 -> 25 ;
26 [label="satisfaction_level <= 0.5\ngini = 0.691\nsamples = 14.2%\nvalue = [0.007, 0.27, 0.39, 0.285, 0.048, 0.0, 0.0, 0.0, 0.0\n0.0]"] ;
22 -> 26 ;
27 [label="gini = 0.713\nsamples = 5.4%\nvalue = [0.012, 0.266, 0.352, 0.294, 0.075, 0.0, 0.0, 0.0, 0.0\n0.0]"] ;
26 -> 27 ;
28 [label="gini = 0.676\nsamples = 8.7%\nvalue = [0.004, 0.273, 0.414, 0.279, 0.031, 0.0, 0.0, 0.0, 0.0\n0.0]"] ;
26 -> 28 ;
29 [label="satisfaction_level <= 0.5\ngini = 0.67\nsamples = 11.6%\nvalue = [0.0, 0.031, 0.287, 0.424, 0.259, 0.0, 0.0, 0.0, 0.0\n0.0]"] ;
21 -> 29 ;
30 [label="salary <= 1.5\ngini = 0.566\nsamples = 6.6%\nvalue = [0.0, 0.041, 0.471, 0.457, 0.03, 0.0, 0.0, 0.0, 0.0\n0.0]"] ;
29 -> 30 ;
31 [label="gini = 0.565\nsamples = 4.1%\nvalue = [0.0, 0.043, 0.489, 0.44, 0.029, 0.0, 0.0, 0.0, 0.0\n0.0]"] ;
30 -> 31 ;
32 [label="gini = 0.565\nsamples = 2.5%\nvalue = [0.0, 0.037, 0.443, 0.486, 0.034, 0.0, 0.0, 0.0, 0.0\n0.0]"] ;
30 -> 32 ;
33 [label="satisfaction_level <= 1.5\ngini = 0.545\nsamples = 5.0%\nvalue = [0.0, 0.018, 0.046, 0.38, 0.555, 0.0, 0.0, 0.0, 0.0\n0.0]"] ;
29 -> 33 ;
34 [label="gini = 0.567\nsamples = 3.5%\nvalue = [0.0, 0.024, 0.06, 0.391, 0.525, 0.0, 0.0, 0.0, 0.0\n0.0]"] ;
33 -> 34 ;
35 [label="gini = 0.485\nsamples = 1.6%\nvalue = [0.0, 0.005, 0.016, 0.356, 0.622, 0.0, 0.0, 0.0, 0.0\n0.0]"] ;
33 -> 35 ;
36 [label="left <= 0.5\ngini = 0.813\nsamples = 8.5%\nvalue = [0.0, 0.026, 0.125, 0.184, 0.257, 0.249, 0.083, 0.038\n0.025, 0.014]"] ;
20 -> 36 ;
37 [label="salary <= 0.5\ngini = 0.831\nsamples = 7.1%\nvalue = [0.0, 0.031, 0.144, 0.211, 0.225, 0.197, 0.1, 0.046\n0.029, 0.016]"] ;
36 -> 37 ;
38 [label="satisfaction_level <= 0.5\ngini = 0.834\nsamples = 1.2%\nvalue = [0.0, 0.028, 0.111, 0.125, 0.25, 0.229, 0.118, 0.076\n0.049, 0.014]"] ;
37 -> 38 ;
39 [label="gini = 0.832\nsamples = 0.5%\nvalue = [0.0, 0.048, 0.143, 0.159, 0.238, 0.222, 0.063, 0.095\n0.032, 0.0]"] ;
38 -> 39 ;
40 [label="gini = 0.826\nsamples = 0.7%\nvalue = [0.0, 0.012, 0.086, 0.099, 0.259, 0.235, 0.16, 0.062\n0.062, 0.025]"] ;
38 -> 40 ;
41 [label="satisfaction_level <= 0.5\ngini = 0.827\nsamples = 5.9%\nvalue = [0.0, 0.031, 0.151, 0.229, 0.22, 0.191, 0.096, 0.04\n0.025, 0.017]"] ;
37 -> 41 ;
42 [label="gini = 0.803\nsamples = 2.3%\nvalue = [0.0, 0.033, 0.149, 0.255, 0.265, 0.182, 0.062, 0.033\n0.015, 0.007]"] ;
41 -> 42 ;
43 [label="gini = 0.838\nsamples = 3.6%\nvalue = [0.0, 0.03, 0.152, 0.212, 0.192, 0.196, 0.118, 0.044\n0.032, 0.023]"] ;
41 -> 43 ;
44 [label="satisfaction_level <= 1.5\ngini = 0.557\nsamples = 1.4%\nvalue = [0.0, 0.0, 0.024, 0.042, 0.419, 0.515, 0.0, 0.0, 0.0\n0.0]"] ;
36 -> 44 ;
45 [label="gini = 0.571\nsamples = 1.0%\nvalue = [0.0, 0.0, 0.035, 0.043, 0.443, 0.478, 0.0, 0.0, 0.0\n0.0]"] ;
44 -> 45 ;
46 [label="gini = 0.51\nsamples = 0.4%\nvalue = [0.0, 0.0, 0.0, 0.038, 0.365, 0.596, 0.0, 0.0, 0.0\n0.0]"] ;
44 -> 46 ;
{rank=same ; 0} ;
{rank=same ; 1; 20} ;
{rank=same ; 2; 11; 21; 36} ;
{rank=same ; 3; 8; 12; 22; 29; 37; 44} ;
{rank=same ; 5; 13; 16; 23; 26; 30; 33; 38; 41} ;
{rank=same ; 4; 6; 7; 9; 10; 14; 15; 17; 18; 19; 24; 25; 27; 28; 31; 32; 34; 35; 39; 40; 42; 43; 45; 46} ;
}