digraph Tree {
node [shape=box, style="rounded", color="black", fontname=helvetica] ;
graph [ranksep=equally, splines=polyline] ;
edge [fontname=helvetica] ;
0 [label="left <= 0.5\ngini = 0.57\nsamples = 100.0%\nvalue = [0.082, 0.489, 0.43]"] ;
1 [label="promotion_last_5years <= 0.5\ngini = 0.585\nsamples = 76.1%\nvalue = [0.1, 0.45, 0.449]"] ;
0 -> 1 [labeldistance=2.5, labelangle=45, headlabel="True"] ;
2 [label="time_spend_company <= 1.5\ngini = 0.582\nsamples = 74.1%\nvalue = [0.096, 0.458, 0.446]"] ;
1 -> 2 ;
3 [label="last_evaluation <= 3.5\ngini = 0.579\nsamples = 67.5%\nvalue = [0.092, 0.469, 0.439]"] ;
2 -> 3 ;
4 [label="time_spend_company <= 0.5\ngini = 0.58\nsamples = 62.6%\nvalue = [0.094, 0.467, 0.439]"] ;
3 -> 4 ;
5 [label="gini = 0.579\nsamples = 52.3%\nvalue = [0.092, 0.47, 0.437]"] ;
4 -> 5 ;
6 [label="gini = 0.586\nsamples = 10.3%\nvalue = [0.102, 0.453, 0.445]"] ;
4 -> 6 ;
7 [label="satisfaction_level <= 0.5\ngini = 0.555\nsamples = 4.9%\nvalue = [0.062, 0.493, 0.444]"] ;
3 -> 7 ;
8 [label="gini = 0.555\nsamples = 2.2%\nvalue = [0.074, 0.535, 0.391]"] ;
7 -> 8 ;
9 [label="gini = 0.549\nsamples = 2.8%\nvalue = [0.054, 0.461, 0.485]"] ;
7 -> 9 ;
10 [label="satisfaction_level <= 1.5\ngini = 0.597\nsamples = 6.6%\nvalue = [0.143, 0.34, 0.516]"] ;
2 -> 10 ;
11 [label="last_evaluation <= 4.5\ngini = 0.606\nsamples = 5.3%\nvalue = [0.15, 0.353, 0.498]"] ;
10 -> 11 ;
12 [label="gini = 0.596\nsamples = 2.1%\nvalue = [0.121, 0.399, 0.48]"] ;
11 -> 12 ;
13 [label="gini = 0.608\nsamples = 3.2%\nvalue = [0.168, 0.323, 0.509]"] ;
11 -> 13 ;
14 [label="last_evaluation <= 5.5\ngini = 0.55\nsamples = 1.3%\nvalue = [0.118, 0.288, 0.595]"] ;
10 -> 14 ;
15 [label="gini = 0.544\nsamples = 0.8%\nvalue = [0.088, 0.33, 0.582]"] ;
14 -> 15 ;
16 [label="gini = 0.547\nsamples = 0.5%\nvalue = [0.161, 0.226, 0.613]"] ;
14 -> 16 ;
17 [label="time_spend_company <= 1.5\ngini = 0.572\nsamples = 2.0%\nvalue = [0.246, 0.174, 0.581]"] ;
1 -> 17 ;
18 [label="last_evaluation <= 2.5\ngini = 0.515\nsamples = 1.4%\nvalue = [0.157, 0.192, 0.651]"] ;
17 -> 18 ;
19 [label="gini = 0.547\nsamples = 1.0%\nvalue = [0.188, 0.197, 0.615]"] ;
18 -> 19 ;
20 [label="gini = 0.43\nsamples = 0.5%\nvalue = [0.091, 0.182, 0.727]"] ;
18 -> 20 ;
21 [label="gini = 0.597\nsamples = 0.5%\nvalue = [0.484, 0.125, 0.391]"] ;
17 -> 21 ;
22 [label="last_evaluation <= 3.5\ngini = 0.492\nsamples = 23.9%\nvalue = [0.023, 0.611, 0.366]"] ;
0 -> 22 [labeldistance=2.5, labelangle=-45, headlabel="False"] ;
23 [label="last_evaluation <= 1.5\ngini = 0.495\nsamples = 14.6%\nvalue = [0.03, 0.616, 0.354]"] ;
22 -> 23 ;
24 [label="gini = 0.515\nsamples = 3.9%\nvalue = [0.039, 0.584, 0.377]"] ;
23 -> 24 ;
25 [label="satisfaction_level <= 0.5\ngini = 0.486\nsamples = 10.8%\nvalue = [0.027, 0.627, 0.346]"] ;
23 -> 25 ;
26 [label="time_spend_company <= 0.5\ngini = 0.484\nsamples = 10.1%\nvalue = [0.025, 0.629, 0.346]"] ;
25 -> 26 ;
27 [label="gini = 0.483\nsamples = 6.8%\nvalue = [0.026, 0.632, 0.342]"] ;
26 -> 27 ;
28 [label="gini = 0.485\nsamples = 3.4%\nvalue = [0.022, 0.624, 0.354]"] ;
26 -> 28 ;
29 [label="gini = 0.528\nsamples = 0.6%\nvalue = [0.066, 0.592, 0.342]"] ;
25 -> 29 ;
30 [label="time_spend_company <= 1.5\ngini = 0.488\nsamples = 9.3%\nvalue = [0.012, 0.603, 0.385]"] ;
22 -> 30 ;
31 [label="last_evaluation <= 4.5\ngini = 0.494\nsamples = 7.9%\nvalue = [0.014, 0.592, 0.395]"] ;
30 -> 31 ;
32 [label="satisfaction_level <= 1.5\ngini = 0.493\nsamples = 4.9%\nvalue = [0.017, 0.6, 0.383]"] ;
31 -> 32 ;
33 [label="gini = 0.498\nsamples = 4.4%\nvalue = [0.017, 0.589, 0.394]"] ;
32 -> 33 ;
34 [label="gini = 0.439\nsamples = 0.6%\nvalue = [0.015, 0.687, 0.299]"] ;
32 -> 34 ;
35 [label="satisfaction_level <= 1.5\ngini = 0.495\nsamples = 3.0%\nvalue = [0.008, 0.578, 0.414]"] ;
31 -> 35 ;
36 [label="gini = 0.493\nsamples = 2.0%\nvalue = [0.012, 0.593, 0.395]"] ;
35 -> 36 ;
37 [label="gini = 0.496\nsamples = 1.0%\nvalue = [0.0, 0.547, 0.453]"] ;
35 -> 37 ;
38 [label="satisfaction_level <= 1.5\ngini = 0.443\nsamples = 1.4%\nvalue = [0.0, 0.669, 0.331]"] ;
30 -> 38 ;
39 [label="last_evaluation <= 5.5\ngini = 0.47\nsamples = 0.9%\nvalue = [0.0, 0.622, 0.378]"] ;
38 -> 39 ;
40 [label="gini = 0.49\nsamples = 0.5%\nvalue = [0.0, 0.571, 0.429]"] ;
39 -> 40 ;
41 [label="gini = 0.44\nsamples = 0.5%\nvalue = [0.0, 0.673, 0.327]"] ;
39 -> 41 ;
42 [label="gini = 0.355\nsamples = 0.4%\nvalue = [0.0, 0.769, 0.231]"] ;
38 -> 42 ;
{rank=same ; 0} ;
{rank=same ; 1; 22} ;
{rank=same ; 2; 17; 23; 30} ;
{rank=same ; 3; 10; 18; 25; 31; 38} ;
{rank=same ; 4; 7; 11; 14; 26; 32; 35; 39} ;
{rank=same ; 5; 6; 8; 9; 12; 13; 15; 16; 19; 20; 21; 24; 27; 28; 29; 33; 34; 36; 37; 40; 41; 42} ;
}